digraph Tree {
0 [label="X[0] <= 15.3700\ngini = 0.666666666667\nsamples = 210", shape="box"] ;
1 [label="X[0] <= 13.4100\ngini = 0.494760989522\nsamples = 127", shape="box"] ;
0 -> 1 ;
2 [label="X[0] <= 12.7100\ngini = 0.277777777778\nsamples = 84", shape="box"] ;
1 -> 2 ;
3 [label="X[0] <= 11.2200\ngini = 0.140036730946\nsamples = 66", shape="box"] ;
2 -> 3 ;
4 [label="gini = 0.0000\nsamples = 14\nvalue = [ 14.   0.   0.]", shape="box"] ;
3 -> 4 ;
5 [label="X[0] <= 11.2350\ngini = 0.173816568047\nsamples = 52", shape="box"] ;
3 -> 5 ;
6 [label="gini = 0.4444\nsamples = 3\nvalue = [ 2.  1.  0.]", shape="box"] ;
5 -> 6 ;
7 [label="X[0] <= 12.3650\ngini = 0.149937526031\nsamples = 49", shape="box"] ;
5 -> 7 ;
8 [label="X[0] <= 12.3300\ngini = 0.18836565097\nsamples = 38", shape="box"] ;
7 -> 8 ;
9 [label="X[0] <= 12.0650\ngini = 0.149013878744\nsamples = 37", shape="box"] ;
8 -> 9 ;
10 [label="X[0] <= 11.4250\ngini = 0.0768\nsamples = 25", shape="box"] ;
9 -> 10 ;
11 [label="X[0] <= 11.4150\ngini = 0.18\nsamples = 10", shape="box"] ;
10 -> 11 ;
12 [label="gini = 0.0000\nsamples = 9\nvalue = [ 9.  0.  0.]", shape="box"] ;
11 -> 12 ;
13 [label="gini = 0.0000\nsamples = 1\nvalue = [ 0.  1.  0.]", shape="box"] ;
11 -> 13 ;
14 [label="gini = 0.0000\nsamples = 15\nvalue = [ 15.   0.   0.]", shape="box"] ;
10 -> 14 ;
15 [label="X[0] <= 12.0900\ngini = 0.277777777778\nsamples = 12", shape="box"] ;
9 -> 15 ;
16 [label="gini = 0.0000\nsamples = 1\nvalue = [ 0.  1.  0.]", shape="box"] ;
15 -> 16 ;
17 [label="X[0] <= 12.1200\ngini = 0.165289256198\nsamples = 11", shape="box"] ;
15 -> 17 ;
18 [label="X[0] <= 12.1050\ngini = 0.444444444444\nsamples = 3", shape="box"] ;
17 -> 18 ;
19 [label="gini = 0.0000\nsamples = 1\nvalue = [ 1.  0.  0.]", shape="box"] ;
18 -> 19 ;
20 [label="gini = 0.5000\nsamples = 2\nvalue = [ 1.  1.  0.]", shape="box"] ;
18 -> 20 ;
21 [label="gini = 0.0000\nsamples = 8\nvalue = [ 8.  0.  0.]", shape="box"] ;
17 -> 21 ;
22 [label="gini = 0.0000\nsamples = 1\nvalue = [ 0.  1.  0.]", shape="box"] ;
8 -> 22 ;
23 [label="gini = 0.0000\nsamples = 11\nvalue = [ 11.   0.   0.]", shape="box"] ;
7 -> 23 ;
24 [label="X[0] <= 12.7500\ngini = 0.5\nsamples = 18", shape="box"] ;
2 -> 24 ;
25 [label="gini = 0.0000\nsamples = 3\nvalue = [ 0.  3.  0.]", shape="box"] ;
24 -> 25 ;
26 [label="X[0] <= 13.2700\ngini = 0.48\nsamples = 15", shape="box"] ;
24 -> 26 ;
27 [label="X[0] <= 12.8400\ngini = 0.5\nsamples = 12", shape="box"] ;
26 -> 27 ;
28 [label="X[0] <= 12.7850\ngini = 0.375\nsamples = 4", shape="box"] ;
27 -> 28 ;
29 [label="X[0] <= 12.7700\ngini = 0.5\nsamples = 2", shape="box"] ;
28 -> 29 ;
30 [label="gini = 0.0000\nsamples = 1\nvalue = [ 1.  0.  0.]", shape="box"] ;
29 -> 30 ;
31 [label="gini = 0.0000\nsamples = 1\nvalue = [ 0.  1.  0.]", shape="box"] ;
29 -> 31 ;
32 [label="gini = 0.0000\nsamples = 2\nvalue = [ 2.  0.  0.]", shape="box"] ;
28 -> 32 ;
33 [label="X[0] <= 12.8850\ngini = 0.46875\nsamples = 8", shape="box"] ;
27 -> 33 ;
34 [label="gini = 0.0000\nsamples = 1\nvalue = [ 0.  1.  0.]", shape="box"] ;
33 -> 34 ;
35 [label="X[0] <= 12.9550\ngini = 0.489795918367\nsamples = 7", shape="box"] ;
33 -> 35 ;
36 [label="gini = 0.0000\nsamples = 1\nvalue = [ 1.  0.  0.]", shape="box"] ;
35 -> 36 ;
37 [label="X[0] <= 13.0450\ngini = 0.444444444444\nsamples = 6", shape="box"] ;
35 -> 37 ;
38 [label="gini = 0.0000\nsamples = 1\nvalue = [ 0.  1.  0.]", shape="box"] ;
37 -> 38 ;
39 [label="X[0] <= 13.1150\ngini = 0.48\nsamples = 5", shape="box"] ;
37 -> 39 ;
40 [label="gini = 0.0000\nsamples = 1\nvalue = [ 1.  0.  0.]", shape="box"] ;
39 -> 40 ;
41 [label="X[0] <= 13.1800\ngini = 0.375\nsamples = 4", shape="box"] ;
39 -> 41 ;
42 [label="gini = 0.0000\nsamples = 2\nvalue = [ 0.  2.  0.]", shape="box"] ;
41 -> 42 ;
43 [label="X[0] <= 13.2100\ngini = 0.5\nsamples = 2", shape="box"] ;
41 -> 43 ;
44 [label="gini = 0.0000\nsamples = 1\nvalue = [ 1.  0.  0.]", shape="box"] ;
43 -> 44 ;
45 [label="gini = 0.0000\nsamples = 1\nvalue = [ 0.  1.  0.]", shape="box"] ;
43 -> 45 ;
46 [label="gini = 0.0000\nsamples = 3\nvalue = [ 3.  0.  0.]", shape="box"] ;
26 -> 46 ;
47 [label="gini = 0.0000\nsamples = 43\nvalue = [  0.  43.   0.]", shape="box"] ;
1 -> 47 ;
48 [label="X[0] <= 16.7000\ngini = 0.26418928727\nsamples = 83", shape="box"] ;
0 -> 48 ;
49 [label="X[0] <= 15.6450\ngini = 0.499054820416\nsamples = 23", shape="box"] ;
48 -> 49 ;
50 [label="X[0] <= 15.5300\ngini = 0.46875\nsamples = 8", shape="box"] ;
49 -> 50 ;
51 [label="X[0] <= 15.4350\ngini = 0.48\nsamples = 5", shape="box"] ;
50 -> 51 ;
52 [label="gini = 0.4444\nsamples = 3\nvalue = [ 0.  1.  2.]", shape="box"] ;
51 -> 52 ;
53 [label="gini = 0.0000\nsamples = 2\nvalue = [ 0.  2.  0.]", shape="box"] ;
51 -> 53 ;
54 [label="gini = 0.0000\nsamples = 3\nvalue = [ 0.  0.  3.]", shape="box"] ;
50 -> 54 ;
55 [label="X[0] <= 15.9350\ngini = 0.48\nsamples = 15", shape="box"] ;
49 -> 55 ;
56 [label="gini = 0.0000\nsamples = 3\nvalue = [ 0.  3.  0.]", shape="box"] ;
55 -> 56 ;
57 [label="X[0] <= 16.0550\ngini = 0.5\nsamples = 12", shape="box"] ;
55 -> 57 ;
58 [label="gini = 0.0000\nsamples = 1\nvalue = [ 0.  0.  1.]", shape="box"] ;
57 -> 58 ;
59 [label="X[0] <= 16.1500\ngini = 0.495867768595\nsamples = 11", shape="box"] ;
57 -> 59 ;
60 [label="gini = 0.0000\nsamples = 2\nvalue = [ 0.  2.  0.]", shape="box"] ;
59 -> 60 ;
61 [label="X[0] <= 16.1800\ngini = 0.493827160494\nsamples = 9", shape="box"] ;
59 -> 61 ;
62 [label="gini = 0.0000\nsamples = 2\nvalue = [ 0.  0.  2.]", shape="box"] ;
61 -> 62 ;
63 [label="X[0] <= 16.2150\ngini = 0.489795918367\nsamples = 7", shape="box"] ;
61 -> 63 ;
64 [label="gini = 0.0000\nsamples = 2\nvalue = [ 0.  2.  0.]", shape="box"] ;
63 -> 64 ;
65 [label="X[0] <= 16.4250\ngini = 0.48\nsamples = 5", shape="box"] ;
63 -> 65 ;
66 [label="gini = 0.0000\nsamples = 2\nvalue = [ 0.  0.  2.]", shape="box"] ;
65 -> 66 ;
67 [label="X[0] <= 16.4850\ngini = 0.444444444444\nsamples = 3", shape="box"] ;
65 -> 67 ;
68 [label="gini = 0.0000\nsamples = 1\nvalue = [ 0.  1.  0.]", shape="box"] ;
67 -> 68 ;
69 [label="X[0] <= 16.5800\ngini = 0.5\nsamples = 2", shape="box"] ;
67 -> 69 ;
70 [label="gini = 0.0000\nsamples = 1\nvalue = [ 0.  0.  1.]", shape="box"] ;
69 -> 70 ;
71 [label="gini = 0.0000\nsamples = 1\nvalue = [ 0.  1.  0.]", shape="box"] ;
69 -> 71 ;
72 [label="X[0] <= 17.1000\ngini = 0.0327777777778\nsamples = 60", shape="box"] ;
48 -> 72 ;
73 [label="X[0] <= 16.9750\ngini = 0.32\nsamples = 5", shape="box"] ;
72 -> 73 ;
74 [label="gini = 0.0000\nsamples = 4\nvalue = [ 0.  0.  4.]", shape="box"] ;
73 -> 74 ;
75 [label="gini = 0.0000\nsamples = 1\nvalue = [ 0.  1.  0.]", shape="box"] ;
73 -> 75 ;
76 [label="gini = 0.0000\nsamples = 55\nvalue = [  0.   0.  55.]", shape="box"] ;
72 -> 76 ;
}